-4.689424487743941161e-01 2.493016583603232250e-01 -5.661073237945121184e-01 -3.392957941726622573e-01 -2.138121660499755217e-01 -5.717384619219061381e-01 -6.456101415269341892e-01 -1.439459408600785917e+00 5.877863599741680600e-01 1.778743766635227375e-01 -4.617307399970289605e-01 -2.657110814337946270e-01 -2.967671952268570723e-01 -5.368493446660295154e-01 -3.309498499012334949e-01 -1.132876481030544724e+00 -1.964741975695230292e-01 -6.838060480897870663e-01 -3.550627473318825750e-02 -1.071277397379305357e-01 -9.312257896167230875e-01 -3.224115310127851353e-01 4.160693273014465232e-02 -9.130620200759884675e-01 -7.929548442807118347e-01 -8.904415279256987503e-01 -7.981366623535163241e-01 -1.016057042172788805e+00 2.360207842329567832e-02 -2.937150706390959098e-01 -1.608975883089467512e-02 3.363539511048331543e-02 9.766046359453052217e-01 -7.348519610101419408e-01 -8.690324090860583883e-01 -4.206297633050923301e-01 -1.003037180415983665e+00 2.521753785398000644e-02 3.938191096162161897e-01 4.281222881085114396e-01 2.466635982507002778e-01 1.854909874166627282e-01 -6.193802556690111011e-02 -2.353069390828756435e-01 -2.680329675588907432e-02 -2.792708167961447385e-01 -5.322975584094232632e-02 -3.883990812190766806e-01 -6.446581488784486336e-01 2.842428826438600509e-01 -6.429270979679286846e-01 -2.865201043360532385e-01 8.953023379532836223e-01 -1.120024961069385344e-01 -5.212474679128979993e-01 -1.304226595410785894e+00 3.246087314419862091e-01 -6.027507143942651968e-01 -4.373244703373168618e-01 1.562695069503441392e-01 -5.617297239508960427e-01 6.067008107424699537e-01 -1.012648038372397474e+00 -3.001317848867219862e-01 -4.998638895379772795e-01 -9.803966888498518717e-01 -1.213078479336916704e+00 -7.784723804302655648e-01 -5.811912694214752539e-01 1.804841641738029745e-01 2.174907362726385962e-01 -2.930126073455590063e-01 -5.218392522156514168e-01 -4.901792284429782875e-01 6.784870851397998281e-01 -1.192364410721309387e+00 -8.471467198758549089e-02 -1.041508071083457609e-01 -4.162350817583056195e-02 4.880034990184765192e-02 -8.848583813017926181e-01 -7.318865997604101503e-01 -8.464900224279692936e-03 -6.279085959539567607e-01 -6.633585568115617503e-01 3.142497921459825316e-01 -9.288432036672712444e-01 -9.805035479953058131e-01 -7.799519759257677043e-01 -2.738510298167165513e-01 7.138852416228240738e-01 -9.407623290999074239e-01 -1.030219817192999709e+00 2.430449196043499571e-01 9.582049483286240177e-01 -1.776992046587106133e-01 -3.489161070831871547e-01 -4.460405304870510533e-03 -1.036823316229639635e+00 -9.594977973009647387e-01 -1.996606815591338846e-01 4.792607113152632659e-01 7.427236271889052499e-02 3.295027610089995007e-01 -3.406984762368692882e-02 -9.158109040991964100e-01 -3.590995106861657460e-01 -2.803074026996454915e-01 -2.616325346606263591e-01 -2.557884802937022140e-01 -1.184094209285162735e+00 2.818576169435306200e-01 3.551637071445779559e-01 -4.049585869924270942e-01 -9.280735298758512053e-02 -4.844568785740147043e-01 -5.697030045682777155e-01 -9.203611681737040584e-01 -1.115737031590170236e+00 -1.044339727354002267e+00 2.332216536649280303e-01 -1.882149757948851643e-01 -8.280555144874744977e-01 -5.902464578361549252e-01 4.782787468653293406e-01 -9.348579410751466368e-01 -3.480791797038637059e-01 -2.563983336489829568e-01 -7.212229870592754555e-01 -5.536957890393386927e-01 -3.328292590610579804e-01 -7.536942705962667022e-01 2.187160654979258545e-01 2.406248171084603427e-01 -6.113215225122325958e-01 3.655609623414167730e-01 -3.765627002219357755e-01 -4.064024479124339062e-01 -5.939570583739333109e-01 2.938082558519443110e-01 1.872223881512497523e-01 -6.547155638940803657e-01 1.470862459698183133e-01 3.638113632311426593e-01 -7.860653988379279200e-01 1.550895004192342164e+00 -6.832020491442699628e-01 7.009476049898605288e-02 -1.045925018325273959e+00 1.919175229396114513e-01 -6.623163022252231968e-01 -1.154199046294231090e+00 -5.311423805307403656e-01 -1.675905912840181256e-01 -8.566041361492134076e-02 -1.080590857708742664e-01 -1.267360691289078634e-01 -3.416441112287866289e-01 -7.004236931031604385e-01 -4.224627796729171769e-01 -2.359011403737061585e-01 -1.194300193427115575e+00 -1.943065684294122963e+00 -6.579498858377887949e-01 -1.768996219874848647e-02 -1.169448670022474213e+00 3.979112743078686565e-01 3.109215396561538225e-01 -2.690035045001140657e-01 -5.934507956797361317e-01 -4.509330207310174171e-02 2.031774465643025520e-03 -1.604680633301437953e-01 -3.588872481551384497e-01 -9.031058660139941463e-02 -5.163479749055134294e-01 -8.055868297813676415e-01 -4.070116555606685949e-01 1.168070639108659964e-01 5.487733334571969213e-01 -1.409320723639544193e+00 -6.802782113782952778e-02 -1.579070493753261528e-01 -3.249402119371057052e-01 1.041353467745549828e-02 -3.877953597734403179e-01 -8.184473416900093223e-01 -7.991260178688754934e-01 7.960550866457763441e-02 -1.983552868878836473e-01 2.138707458297039454e-01 8.921756030621438849e-02 -1.033283419352194032e+00 -6.935246078256253333e-02 6.247250030323460435e-02 -1.182659339118223407e+00 -5.122082797044154034e-01 -2.997932986583444204e-01 -7.705364856310175092e-01 -2.836183002764057215e-01 -9.803269960588055776e-01 -4.097216768278734156e-01 -9.171270942467156795e-01 4.325409118439386136e-01 7.631664606450834498e-02 3.595097922068014873e-02 -6.933325901983337092e-01 1.489713442945417854e-01 -1.033677022640515863e+00 -9.019985877619701720e-01 -5.655381237640423331e-01 3.495601119090542830e-01 -1.959061788767635370e-01 -9.265415326245118877e-01 1.493140658126254072e-01 -3.127029342302629633e-01 -5.351270255674066556e-01 2.134400084722337942e-01 -7.087158795676509193e-01 -8.671328522557786300e-01 -9.383179933452884258e-01 -7.099969215025272451e-01 -6.338480245584833250e-01 2.879609432925762658e-01 -1.539885652162795437e-01 3.569218955990162701e-01 -2.740395522402730433e-01 9.878443307616031621e-01 -3.975817291519245789e-01 -4.479992227821083528e-01 -6.264013873617649275e-02 -7.254639282682443513e-01 -6.067675447744038664e-01 -9.738158763427388065e-01 6.353156310115391781e-02 -5.027591373988755663e-01 -9.377814971485031181e-01 1.446844842893058314e-01 -4.098012918474789879e-01 4.346769598657505007e-01 4.106329628576674828e-01 -9.264715385131820913e-01 -1.638058652302321894e-01 -7.729201616525128715e-01 3.051158529290537089e-02 8.297963862363012810e-02 -1.040610352967374030e+00 -2.807616915914720179e-01 -8.847021071259938418e-01 3.709438971358327009e-01 4.029188680816282730e-02 -1.964548897623176749e-01 -2.423287150230756526e-01 -3.158877747887640641e-01 -9.361570488437540027e-02 -1.039214173304188055e-01 1.187717840025763298e-02 -7.434590241940404187e-01 -6.505395617136897624e-01 1.997550158839986045e-01 -8.062022953051057872e-01 -1.124910394182731199e+00 2.140522708984606559e-01 -8.316030429859878614e-01 -6.157048869006485903e-02 1.436624527892174999e-02 6.174784305078503954e-02 4.461292014373956921e-02 1.373482460281862938e-01 -3.427039455152297021e-01 -8.423619967782417506e-01 -6.263920816079084908e-01 -1.841526418165946866e-01 -8.019146159953041142e-01 -1.624902862261614900e-01 1.656012481405193804e-01 2.320655496287326036e-01 5.093145885349223967e-01 -5.643023275443539433e-01 -4.006013845470666190e-01 -4.173892190575772543e-01 4.357783529943172751e-01 -2.445138374619351129e-01 -9.854903444638746235e-02 -1.713223809180124180e+00 -1.019917044800490613e+00 3.188648151788572305e-01 -1.362295488947722066e-01 -3.135055111852403376e-01 3.391032503002250342e-01 -6.058744494386951729e-01 -7.598746903607077607e-01 -8.108257279512598448e-01 2.957838884379445088e-01 -4.588549541943432453e-01 -7.182392614715930046e-01 -6.267426095663490848e-01 -1.656360628489094156e-01 5.129253809634617411e-01 -1.564231492049639530e-02 3.918450196642385142e-01 2.315259091958064286e-01 7.601384852429422523e-01 -1.577165799155863524e-01 -8.984438232410250080e-01 -1.473250435529659952e-01 -5.325233136616922547e-01 -1.180022566035860976e+00 8.154150786798361472e-02 -1.324330926287475396e+00 3.981565234250161733e-01 -1.217224999867573265e+00 -3.404731671275044724e-01 -6.857157918092904314e-01 -4.431935301061274562e-03 -3.349867736732952128e-01 -5.104710385882791357e-01 1.844448987427085518e+00 -6.221713124147114637e-01 -4.407306465215491964e-01 4.135897548248163025e-02 7.781971104589936461e-01 -5.754891037600802506e-02 4.852047833169028102e-01 1.810731205159163693e-01 1.510019133158796434e-01 -1.854637126170656791e-01 5.947279504644348291e-01 -7.407057227481940176e-01 -4.308132026928760405e-01 1.838615743490177590e-01 2.951684534031300267e-01 -9.495313913226083313e-01 -3.808923808569681935e-01 -1.909000158437242634e-01 2.277128108036380050e-01 1.691545008567142960e-01 1.897412528281121613e-01 3.175554763641293410e-01 -7.990390849008088825e-01 1.534489631762958328e-01 -5.876238364669839065e-01 1.510720358812416564e-01 7.060804096045804057e-01 -6.295919458764498433e-01 -1.103280856371592761e-01 -1.651445268017584234e-01 -1.608149380101581150e-01 -1.145558384976564925e+00 -1.358884391379993062e+00 -5.677243282244353040e-01 -9.204833719206436671e-01 -9.544539484153444220e-02 -9.368245249605109404e-01 -1.009457730652762314e-02 -8.688798734084460795e-01 1.507689871112666558e-01 -7.742818628475439668e-01 -9.214702120846564315e-02 -8.419176409374040659e-02 5.340099853471237390e-01 -9.280929460721784596e-02 2.023974421849264738e-01 -1.253506596873246171e+00 -7.607484447203444189e-01 1.657198092217986585e-01 -6.962157968847916267e-01 -1.470432884637550286e-01 -8.026110331035066214e-02 -1.024635782510573634e+00 2.341988957719886577e-01 -1.550362582749095663e+00 -3.876064869029345883e-01 1.155336195023241863e-01 6.391451998668738754e-02 -3.727777904207486559e-01 -9.056533972912715891e-01 -9.856569406917455867e-01 1.776997013221797705e-01 5.010902278182345349e-01 -1.008010274394799843e+00 1.246836231874993983e-01 -1.350684167292338644e+00 2.445961393338219603e-01 -9.966796187256657946e-01 1.415412084597910680e-01 2.115408085700462570e-01 6.073837852716980068e-01 -7.399679089183004432e-01 6.498916529495512018e-01 -4.710789029607762024e-01 2.702858256341061360e-01 -5.854083727218357958e-02 -5.238236246889639292e-01 2.540632401214799607e-01 -2.989650670580204506e-01 -5.024083364259911422e-01 1.240356786511567444e+00 2.608659091946283898e-02 -8.481643477622082816e-01 -5.969246767333842296e-01 1.752091544146463231e-01 -8.683819389938829403e-01 1.363113926719095259e+00 -1.203475314096018822e+00 -7.646666974893027158e-01 -1.620713131406201768e-01 -1.253910670384316806e+00 -6.173552023447593795e-01 -5.657414573779767641e-01 1.270353966416730984e-01 2.842286082808102021e-01 -1.540454015340713578e+00 -3.363085471963870310e-01 -1.481232795055594242e-01 -3.341158381112788178e-01 -1.072443562832930075e+00 -5.050877303792864481e-01 -1.719374656800115309e-01 -1.001599165554798887e+00 7.531027912817843395e-02 -2.245872177429684979e-01 -8.190151306034580969e-01 -6.477650214861950806e-01 7.231031213528023131e-03 -1.165202829969572917e+00 -7.944813222948123033e-02 -7.343032323156621910e-01 -5.250624925548340594e-01 -2.974775086323896423e-01 -7.404563186335180180e-01 3.181542728135537401e-01 -5.446345180749940784e-01 -1.477648128111102688e+00 1.197116088629936348e+00 -1.718236180337119612e-02 -2.513587357643518594e-01 -2.910792643444140015e-01 -9.856532295718966052e-01 -1.182975651611185286e-01 -7.395134250106778495e-01 -4.522010248777923458e-01 7.025309224157063603e-01 -8.008047351095755051e-01 3.538520810843140407e-01 -3.242858995160735613e-01 -8.991000695003764642e-01 -8.365989011234838957e-01 6.942768377040287042e-01 2.101912662486360994e-01 1.075105244616130808e-02 -6.354678775935020119e-03 2.582195222806462076e-01 -9.043758362192610978e-01 5.352417505845028511e-01 -8.265045835769402327e-02 1.473859517775255416e-02 -9.338882128183443321e-01 7.224397918528907558e-01 -4.372908823765303543e-01 -7.802737964644536062e-01 -9.958205175113802321e-01 -3.733460006796475716e-01 -3.102171522404689186e-01 2.550635855481579450e-01 -9.268503665566005800e-01 -5.510143421876004810e-01 -2.745254717038921322e-01 -1.881778450621160448e-01 -9.853077177990442193e-02 -2.733324427241792809e-01 -1.734039745671948560e-02 -1.127862908630550720e+00 -8.195270973921034985e-01 -5.940560958619305332e-01 -3.996831990544919555e-01 -5.014362202993515316e-01 -3.623834472031727816e-01 1.434222915643372787e-01 3.304892487142844226e-01 2.387022587560659048e-01 -1.205288303008241302e+00 1.509759498220151763e-01 -1.311398939308744405e+00 -6.098709158338857378e-02 -8.410396019892022457e-01 -5.939731836249414476e-01 -3.264986662203210876e-01 -2.704369945258605079e-01 -5.337393219086835616e-01 -4.551402776060727295e-01 -4.733655641534906255e-01 -2.164998241320046646e-01 -9.506222317739768668e-01 -7.025655166831041853e-01 -7.908716411571679039e-01 -2.120557770500902661e-01 -1.041458980218787689e+00 -1.143903664959302402e+00 -1.713460935160658893e+00 -7.690335221702493396e-01 3.404788987037182246e-01 -7.265022145947191978e-01 3.111684266614166416e-01 -2.407336015520462891e-01 -1.400078583890213557e-01 -2.019546985344130297e-01 -3.067696167429022625e-01 -1.055284355556136644e+00 -3.775900081784056006e-01 4.808952399804972133e-01 -7.148436161455925530e-01 -6.283953808560308607e-01 -8.385757823150369328e-01 1.567335748457665823e-01 -4.893357145162290922e-01 2.531023503485934634e-01 -4.153941406220736376e-01 -8.446066271614265375e-01 -7.976949311718555258e-01 6.385362102580955934e-01 1.240094681911465990e+00 3.096132174574628970e-01 -1.852391067338071406e-01 -1.125689378861588263e+00 -6.659623943935054635e-01 -8.023946297915823811e-01 -7.221445977979125408e-02 -1.030896430706231826e+00 2.416914023039114234e-01 -1.190775062717609328e-01 -2.054539804359002964e-01 1.102456879077019919e-01 1.471088278842709596e-01 1.097988958217485933e-01 -5.737469021971227656e-01 3.066749651202271831e-01 3.686181578203491238e-01 -1.277959368663993178e+00 -6.281463701141648537e-01 -4.395931771919671105e-01 -5.311564426659129978e-01 -3.715884853283605849e-01 -7.193138134155410146e-01 -5.780936121683732942e-01 -2.632020120136212560e-01 3.441887975490321994e-01 4.143712848825655826e-01 -1.118740949402361462e+00 -6.664607536674848065e-01 2.990491690001850222e-01 -1.031451877116328353e+00 -3.447178717876004383e-01 -8.767664795165173164e-01 -3.440072688843213711e-01 -4.223205768606487220e-01 -7.529082099047365029e-01 -9.407695684382635370e-01 -2.726269129822486703e-01 -3.524121914205890493e-01 2.053594438267040620e-02 -7.066892655571650472e-01 -1.509732710573542969e+00 -6.708597191369163326e-01 -9.310827572065211166e-01 -3.948203246539787326e-02 -5.337471624893225242e-01 -9.405832774476891034e-01 -5.773607832497971160e-01 -7.062266514427998354e-01 -8.314691181801742159e-01 -4.037303547071939280e-01 -6.464178034683061291e-01 3.059892210424692283e-01 1.251254897057103854e-01 6.874147799854651852e-01 -8.594081970544075189e-01 2.764933070652733638e-01 -8.529272140390794510e-01 -9.431692904575583736e-01 -6.723977265553437999e-01 3.270800714277938281e-01 -9.537705818468782404e-01 -8.575740161012322949e-01 -5.516774698063985349e-01 -3.405452795064231042e-01 -1.160230079182856811e+00 -3.129136421190747419e-01 -2.945390270270594191e-01 -7.981469464797733560e-01 3.938572983826827967e-01 3.729490202720793512e-02 -7.907139850634543610e-01 3.252650047408489065e-01 -7.385440292818258312e-01 -1.488004527537798438e-01 -8.061274311177901719e-01 -4.678510152495823915e-01 -2.301466749010473711e-01 1.703957879991194191e-01 -4.315391285291387824e-01 2.900081291148838905e-02 4.938323818267419812e-02 7.560304530279909896e-01 6.458463366871143307e-01 -9.862757129772209419e-02 -8.625408452897764811e-01 2.174583896205487255e-01 -3.333074807546105300e-01 -8.647909124457641150e-01 -1.052222868635834946e-01 -1.995323051363295130e+00 2.856182755222727576e-01 -2.216164324778027161e-01 2.615160361610293083e-01 1.349821396879497259e-01 5.422941232050266375e-02 2.961506653203484496e-01 9.298810821347312794e-02 -6.147290860180542049e-01 -1.747240700452063200e-01 2.885473884522543608e-01 4.315440088846158040e-01 -1.319357954283323364e-01 -4.628390284822575529e-01 -5.386949733811136759e-02 2.728525002104322805e-01 -2.457287175438056803e-01 6.014510786666222852e-01 -2.529511368551036754e-01 3.948681996545478357e-01 -1.419070341212142483e-01 -1.097683664006779081e+00 -8.826591622518166480e-02 -7.168202954979601138e-01 -2.355266944303446297e-01 2.506546520953505386e-01 6.095648564396562857e-02 8.702442023113643454e-02 -4.167551134015425873e-01 -6.130302993230984931e-01 7.396045369114850887e-02 -1.098390709212738736e+00 -4.827489460455627879e-01 3.215100338406242653e-01 -8.098751696184807169e-01 -2.534520845425556335e-01 -3.922855848009522139e-01 4.049156704023523790e-02 -1.973666718539669185e-01 -2.071100264148997283e-01 5.315204472315218087e-01 -4.145575987573366095e-01 -6.757071633687010692e-01 -7.858200798126232511e-01 1.126731285703320984e-01 -1.591864072414051146e+00 1.154879323223957921e-01 3.217221407769456643e-01 -4.469117654230160275e-01 -2.648311537821377848e-01 -3.496297707083666495e-01 -2.197071680452608866e-01 -8.951141544668467231e-01 7.717517288779431051e-02 -5.478918827378680412e-01 -2.989475018700254449e-01 -1.087008357222777555e+00 -5.779988660346890850e-01 2.057424101900988955e-01 3.305719307443537036e-01 -9.955850271108237504e-01 -7.202531522243341144e-02 3.073161209973353514e-01 -2.067810740704101313e-01 -2.370345961134471269e-01 -4.221705351281101332e-02 -8.068861503055670958e-01 -5.263086860799293110e-01 -6.945347503183131599e-02 -8.208686621310972154e-01 -5.347587674162499471e-01 -1.188385678675865531e+00 -5.881334325763517556e-01 -4.862855780667771910e-01 -5.593194159455734393e-01 -2.684016444006994129e-01 2.474669169828404014e-01 -9.965691770464920607e-01 -4.430108452400398633e-01 -6.914102734070610712e-01 -4.506099053368585738e-01 -4.400356177375336353e-01 -2.430400436843299650e-02 -4.305458866715812238e-01 9.935337683989201585e-01 -9.799596691488751121e-01 4.588809170176730845e-01 -7.281119318441628963e-01 -1.627609610625872782e-01 -8.481052734057896725e-01 -2.272466060076384076e-01 -3.110932208947110866e-01 -8.838221641900356751e-01 -8.735427872132979221e-01 -4.576566878930816706e-01 -1.991822224384654783e-01 -2.445359877376600544e-01 2.886469664139508229e-01 -9.090551389197328858e-01 3.573558981539246698e-02 -6.268375286375643674e-01 -1.267355398896037100e+00 -3.373651575517380707e-01 -1.030207602189237015e+00 -9.126453849740888691e-01 6.807583467493003027e-02 -9.733110629505352662e-01 -4.780150653081690626e-01 4.864276998861660761e-02 -9.340971805106504933e-01 -1.093424426211947909e+00 -3.698128735111657628e-01 -2.789477824576967468e-01 -8.049540020935831430e-01 -2.337446657617270329e-01 -3.383262492928671428e-01 -3.258061289702294805e-01 -3.524611482780155569e-01 -9.171315551721950232e-01 -6.165541725125721628e-01 1.399600389863004501e+00 -1.056662582510628501e-01 9.324303701861139104e-02 -1.085428771331062192e+00 -8.948565414348623737e-01 -3.110826508616705288e-01 -7.772753542972588026e-01 1.455425174631111984e-01 -9.114644711838330027e-01 -8.809218848114773737e-01 -4.550858003138871788e-01 -4.772122636736616519e-01 4.557102341948021662e-02 -4.090194068144823586e-02 -3.549424740950353208e-01 -5.044138166034857207e-01 -6.088957717024462424e-01 -2.470305785767070161e-01 -1.314378647861811078e-01 -1.077427258597515314e-01 -9.955725353843686287e-01 2.585027335652303471e-01 -8.213630003867415652e-02 2.336210370019495830e-01 3.469548209468426569e-01 -1.505539676853180908e-01 2.476839781644709915e-01 1.031351098172935410e-01 -5.785182354869533583e-01 3.209555908559577064e-01 -4.741195453597464304e-01 2.620570396277214775e-01 -6.066249518733315416e-01 6.116264804951640488e-02 -8.225284809218109672e-01 8.097491481096218413e-01 -1.156060422134562060e+00 2.884875988442715533e-01 5.088171897216193784e-01 -5.440463436966819222e-01 -3.616928319879509357e-01 3.324086451454171254e-01 -5.489141636778508415e-01 -3.078108118605533683e-01 -7.265655680591038834e-01 -5.467033417930849959e-01 -2.856997696642787909e-01 -7.055425695012901288e-01 -1.641630927784263061e-01 3.336751761447568354e-01 -6.911685592075048623e-01 -8.314936980155195334e-01 -1.188097072960260014e+00 -4.729933933058950712e-01 -5.786598154223976387e-01 5.671328387604770427e-01 -5.060116618027952207e-01 -7.877375815007281457e-01 -8.052285024442672468e-01 -8.216856176242077758e-01 3.825411711522720970e-01 -3.613832472264605356e-01 2.917661960594932768e-01 -4.507382855687018242e-01 -6.754659647054037652e-01 -5.430582304083689804e-01 -6.262012291161855870e-01 -8.675830227375584958e-01 -1.335677400568003659e+00 -5.825245335010041936e-01 -4.065112645889872867e-01 1.395734956568822904e-01 -1.381125027301348451e+00 -1.366182365821725364e-01 2.067777745126809508e-01 3.234973482943374057e-01 7.628760605786934212e-02 -7.847849791301628741e-01 -5.001899860839439382e-01 -1.112255657526436181e+00 2.988802006825763691e-01 -9.091867854308384178e-01 3.817903791213839715e-01 -1.085049776038526037e+00 5.773845055501602985e-02 -1.155670609010460925e+00 6.351149060382430545e-01 -9.498383122156559555e-01 -1.092283103742571537e+00 -6.067412545898412946e-01 1.222035899731983323e-02 -2.805716064982016755e-01 -1.177740829874440509e+00 -2.444790975133188660e-01 2.055425764809234723e-01 2.450340570054166389e-01 -7.407217943940613836e-01 1.004133340922502282e-01 -2.248435878661783349e-01 1.201279292646193625e-02 -1.272020858701272683e-01 -7.242824968664998142e-01 -1.707026608925750755e-01 -6.507557668622215852e-01 4.613686259465034356e-02 7.959107124574980874e-02 -2.050425129629366849e-01 -2.241886987958340571e-01 -3.050735610072822790e-01 -3.908451208070884419e-01 7.663217153984427932e-02 -1.152584748652827118e+00 -4.665183121659981502e-01 -5.184861992164031541e-01 -9.420084955637368918e-01 -9.903220124935306901e-01 3.405391661833558070e-02 -1.368523196627787764e-01 5.701837560904517987e-01 1.219030987926014609e+00 -5.583643710943292371e-01 -1.339391565544515439e+00 1.554102055662015813e-01 -2.220847245440286943e-01 -7.159723499756848186e-02 -1.192537315596879699e+00 -6.976156176803449682e-02 4.881653858978691751e-01 -7.062876458827453685e-02 9.651145383865629146e-01 8.333594704191866764e-01 -6.581079045641090586e-01 -8.373405632342014737e-01 4.210961624959299043e-01 -8.394089433014574331e-01 -8.503902978414704661e-01 -3.719943703449029443e-02 -9.048496864010643348e-01 -8.020772004223362117e-01 -4.741886081460729430e-01 -7.859333492006319588e-01 2.485099635319478473e-01 -6.931089877104951169e-02 6.654097817450500552e-01 1.164543236459624764e-01 2.230289405502230982e-01 3.247306706623179218e-01 -6.751094941783162273e-01 3.304335953507632206e-01 -6.011020808755647149e-01 -1.653540640010432439e-01 -7.138640054683933478e-01 7.702236854891129081e-01 -6.460948799610599647e-01 -9.478532016726489706e-01 -6.961263295832792464e-01 -5.036467771522354919e-01 -9.711213867249055554e-01 -8.920712479351898816e-01 -6.638302906878998377e-02 -5.761211244103728868e-01 -2.946357596987862933e-03 -1.866158886628598301e-01 1.334185698690534549e-01 -9.041294059635187619e-01 2.125289478455410219e-01 -1.478254780766860010e+00 -1.074431827865208078e+00 -2.989631112669725033e-01 -6.954526915448343560e-01 -2.791698439489098682e-01 -5.459791610168285986e-02 2.089804473037311094e-01 -8.158044536275306235e-01 -7.507774025632225623e-01 3.410702073987252336e-01 -1.455820893735013666e-01 -3.380857386075925564e-01 5.850250403029710888e-02 1.325683751702066704e-01 7.066824809982050204e-02 4.773622679721183371e-01 -4.315029793570503980e-01 -1.131572058473054865e-01 4.568712003289993606e-01 7.724832568588547825e-03 5.684943449189948650e-01 -9.515088693963982824e-02 2.319440568275424330e-01 -9.392608269600787319e-01 -4.612088729265509390e-01 2.876100613857897614e-01 -1.540537058178052254e-01 2.530464167824464927e-01 -8.945203400544783356e-01 -7.588691299229458620e-01 -1.923121760054305462e-01 1.026045166220491793e-02 -2.617147894481809400e-01 -2.193905446015420313e-01 -8.631523180545387641e-02 1.132057650380783181e-01 -1.234167074993216540e-01 -3.437931917195792275e-01 -1.767480499240871861e-01 8.286901295724387051e-01 2.929601526096382580e-01 1.896273920463957263e-01 -1.188589142241027075e+00 1.614965294440229016e-01 1.441726645111474359e-01 5.291866551579966771e-01 -2.343294273623751089e-01 2.453243970725821899e-01 3.392567783343121146e-01 -1.333127626648183683e-01 -7.385927157728278125e-01 -1.581589128848132353e-01 -4.109737847873230487e-01 -1.056962253279886355e+00 -8.168047077368529862e-01 1.777073355037137870e-01 -1.584061351227249448e-01 -5.066900773248987910e-01 3.217965471652032422e-02 -1.366544743681719742e+00 2.555283413199526676e-01 -4.315412786300524273e-01 -1.911863387777786194e+00 4.470970746537182849e-01 -3.142139023204515436e-01 -3.172258611420154528e-01 -9.338930873888579010e-01 -7.920200365424934219e-02 8.841694326692570161e-02 -4.892032268167101350e-01 8.538677651184405082e-02 -8.087482708019311239e-01 4.168265174896613190e-01 -3.530900122508816297e-02 -5.127863162889917392e-01 -8.079659784319087601e-02 -1.039088808208929127e+00 4.772120971227101216e-01 -4.135034460450410787e-01 -3.316705395458347527e-01 8.190261337372121142e-01 -8.198287489310772669e-01 9.657381068866662810e-01 4.713801838551927581e-01 2.254580383467601479e-01 -6.611551634376684472e-01 -1.737261915175355720e-01 -5.356127280497882115e-01 -5.604705964955001285e-01 2.529439022768058959e-02 -6.626333014488587914e-01 -5.236077970217521971e-01 -2.924829679798193194e-01 -8.188578269597390769e-01 -5.416823442633162955e-01 -3.463325335620662249e-01 -1.885826900397691852e-01 -9.424600478913733870e-01 -3.644383293455779604e-01 -2.579801446896983208e-01 1.629871471504967459e-02 -9.952850039756794276e-01 -7.238519405493095693e-01 -3.456295672262009178e-01 2.847347669679572979e-01 -1.421884068684285740e+00 -1.293891026773680064e+00 -1.618764273525216124e+00 -2.481216601607073302e-01 5.990959974436628199e-01 -3.683104699748021016e-01 -2.955195886915187864e-01 -2.124424415640024932e-02 9.244631414413843062e-01 -1.013041481642161123e+00 -1.687872145921190947e-01 -3.134470819647051099e-01 -2.510504525562836653e-01 3.439593786825350663e-01 7.866490304679403522e-02 -9.382292069016444636e-01 -6.962173883788409512e-01 1.630289132160318843e-01 -5.207166520916857166e-01 -4.330488990343068778e-01 -8.449311394092632321e-01 -2.771466550934146081e-02 -5.134685331660810981e-01 2.107333522177900764e-01 -1.075501643414205732e+00 -6.572297715650734506e-01 -7.157775636593775859e-02 -1.142123479080888071e+00 1.297114163385825192e+00 -6.401732128706294489e-01 -1.972841038878841713e-01 -5.005942153713404119e-01 -2.372042975470753934e-01 -4.792511808999067036e-01 4.244561084616944591e-01 1.805322056907941453e-01 -3.371202096475018894e-01 1.814750042451499790e-01 5.391917965455387401e-02 -2.148180677454063769e-01 1.889380355530475009e-01 -2.992858931807111378e-01 1.359046347537082866e+00 -2.935551800505414310e-01 -1.021180434298989859e+00 -1.701809732519464768e+00 2.006154822822585337e-01 1.677370739819719347e-01 2.262525470791342530e-01 -6.638046265934561818e-01 -3.848237809992223202e-01 -1.856185948862859592e-01 -1.414691489220896825e+00 -3.918893860011112701e-02 -7.743496681483527100e-01 2.283178792528293422e-01 -2.596641554405620389e-01 5.579331945762795453e-01 -1.272212126153314360e+00 2.155420421867678890e-02 7.848325476994821859e-01 4.257958160514291324e-01 -2.823383598494140223e-01 -4.264108174295310194e-01 -7.353393470891008699e-01 5.219673905981957185e-02 -5.185296740813305494e-01 -2.540265224037445146e-01 4.734880199697343861e-01 5.220168070611483913e-01 2.372431940572482800e-01 7.654377254254262075e-01 1.328891052156989661e-01 -1.179452190952761548e+00 2.792451467823978684e-01 -9.690673181194246755e-02 -3.990157953008484082e-01 -5.709633927280909349e-01 -2.212054256811950004e-01 -7.877769544000607915e-01 -1.312977883281881919e+00 -3.067549181361262645e-01 -5.500234405099623247e-01 1.277800412099666216e+00 -6.721533423797479978e-01 8.541321316137909792e-01 -3.523660585956930325e-01 -8.010636342847095026e-01 -1.207914578496395164e+00 2.446189981250635748e-01 -3.805085282329776497e-01 -2.582273437127116100e-01 -5.807985080273039280e-01 -2.208317160712345018e-01 -7.103046950513179914e-01 -1.131862635606000866e+00 2.378263167161054070e-01 -4.764370222260073118e-01 -1.333651134350766432e+00 -7.982359178758631213e-01 7.190397412448373826e-01 9.106264636946510491e-03 -4.110675962178968884e-02 2.614444949107624927e-01 8.258412050274117622e-01 3.074772442459992039e-01 2.873752536168710514e-01 3.609811644628879712e-01 2.199231813032563876e-01 -1.073483302847670018e+00 -2.896472492343817318e-01 3.326695122857281084e-01 -8.923492078126931126e-01 -1.012175821388783037e+00 -4.872990421074183676e-01 -5.365588289861342730e-01 -1.924844312244426980e-01 -8.794384670755952538e-01 1.871745123608943850e-01 1.177129797587646021e-01 -1.795433886838329607e-01 -3.561026858381016735e-01 2.908734383029752402e-01 -8.743933084339231554e-01 -8.052944333305084301e-01 -5.621659434781749454e-01 2.930864874813217669e-01 3.995943375326458380e-01 -3.222903598157567107e-01 -1.837097954783009357e-01 -2.654385965971158279e-01 -9.251966590813526237e-01 -2.861328750840611557e-01 -8.604059098957760332e-01 -7.138032965214824443e-01 -1.711732162954164860e-01 -4.136906920611120864e-01 -5.803815718265802337e-01 -4.974089120354951293e-02 -9.078696007317378358e-01 -9.320253600391160687e-01 2.748510599340957539e-01 -8.010718627381279155e-01 1.869360667767258621e-01 -6.797499016737783561e-01 -8.196269964826362608e-01 6.307889924388453418e-01 -9.126522015350745365e-01 -9.249822388155526376e-01 -2.951094554655669944e-01 -4.885028690416754471e-01 -1.547398883158890570e-01 -4.693000451706847431e-01 1.190929475545037253e+00 -6.237554425880256076e-02 -6.119249907793403720e-01 -2.730993573695145171e-01 2.571891792768740692e-01 4.233533155930919722e-01 -1.104992279176976039e-01 -8.351045723403726084e-01 -2.968894788338954926e-01 -6.003332061191508640e-01 -7.150146099507976860e-01 -8.563665696210258638e-01 4.289536958855130755e-02 2.626703694715075699e-01 -7.696465355472938974e-01 -8.900303364011534768e-01 -7.729168675483030215e-01 1.024934434793484339e+00 -7.528992219013314058e-01 4.016690202100364204e-01 -1.042733092300495434e-01 -8.674178152762640481e-02 -5.148159104160396904e-01 -2.911414254098745324e-01 -5.907443281920725653e-01 -8.272046877014205268e-01 -1.424064718780082284e-01 -3.811374541391630011e-01 -3.660784458970675059e-01 -5.571850401952659348e-01 1.513980815867288499e-01 3.396086851661854478e-02 -3.178325099719622182e-01 -7.098531013217055374e-01 -5.741181459357996841e-01 -2.579345470915135885e-01 -6.995460042190876360e-01 -3.403247917174315740e-01 7.543433354162619453e-02 -9.265802716885988000e-01 -4.626509014829988664e-01 5.765525823201977929e-01 -3.589067250441709267e-01 8.535323032104560337e-01 -1.076872837512200753e+00 -6.604772733460575473e-01 -9.789490383797436746e-01 -1.223233121881260432e+00 -5.532379183321788352e-01 -1.239221992134176276e-02 -9.356454394642249595e-01 -7.134239788511776981e-01 -7.567194526152406509e-01 -3.336160916342840316e-02 -6.840790454667398102e-01 -8.782705698298473029e-01 -6.632424609072620214e-01 -1.088969318680429677e+00 -3.499477542376190353e-01 -7.249742978479719602e-01 -1.047061906950637500e+00 -9.309415579723819834e-01 5.563305186050381268e-01 -2.147839261617021100e-01 1.090603629152206294e-01 -2.952747513078048391e-01 -1.082085462260726327e+00 -5.407749214492231227e-01 -4.706422257433047207e-01 3.058695494094610390e-01 -9.691548567983730988e-01 -1.181945469838837220e-01 -9.889749342327790460e-01 -3.492292707986310862e-01 5.038028070632890598e-01 -1.021307252093633239e-01 -7.862653936259246246e-01 6.195009972266785764e-02 -4.068638793483702609e-01 -9.842081427373552405e-01 -9.862948728138488663e-01 -8.011100005249512102e-02 -6.462160263969015661e-01 9.909292384819122501e-02 -5.934944654595687707e-02 -5.312945267986203257e-01 6.107471688429585432e-01 3.451679303911122654e-01 6.974685909978205200e-02 -1.593609705702089041e+00 2.521216474084883030e-01 -7.814628803649396882e-02 -6.679496960299713404e-01 -6.512517072128454210e-01 -1.030480260582728347e+00 -9.096913935961897790e-01 1.334894729995590897e-02 7.988420785525575107e-01 2.369286060033619912e-01 8.245975156300656694e-01 -1.329655979685582801e-01 -6.715357472927012683e-01 -1.266793941833005199e+00 -9.116367425499326549e-01 7.205507183159132190e-01 -5.340057855303430578e-01 -2.846504080750255072e-01 -3.871848642548623032e-03 -3.096343138767779779e-01 8.944047947897694473e-02 -7.614634691242755382e-01 -7.086625843154900758e-04 -5.413706864842489086e-01 -3.780378231141876544e-01 2.334953023680398088e-01 -9.289182262413216151e-02 7.697425461205681385e-01 -1.150900054919256288e+00 6.824305207719467692e-01 5.432368719642978183e-01 -1.200259709536399821e+00 4.142445223614190652e-01 2.773304978595835801e-01 -2.994000629121433832e-01 -1.156638054374341085e+00 -1.534011320915539933e+00 -1.570751806384924176e+00 -8.521495111722815485e-01 -2.340791924241494570e-01 2.190441844827261120e-01 1.357193059541664526e-01 -1.353153255731301685e-01 -1.328401206407672897e+00 -7.293878745798743068e-01 -5.516053118609761663e-01 -9.988360968840274134e-01 -2.436147250961238908e-01 -1.394783253257150524e-01 -2.386025506573100641e-01 -2.215381859715395141e-01 -7.901726904480006475e-01 -8.228507465893355466e-01 -2.881091583730574501e-01 -4.732759382807684712e-01 -1.333057230610403265e-01 -1.285782955374965786e+00 2.019309042724451997e-01 -1.218435271251580465e+00 3.847451624317319574e-01 -1.308972986160283014e+00 -5.566415223175959388e-03 1.533680596051573419e-01 2.810925088016433815e-01 -5.434973520518926460e-01 -1.201884468046951815e+00 1.667117924417636787e-01 -1.198304917887340337e-01 -6.565871883947811405e-01 -5.483250599229632094e-01 -1.323469545164684125e-01 -5.348811168844268549e-01 -6.405788858896076521e-01 -8.659109066335193283e-01 1.888535839330002797e-01 1.381169471576244312e-01 -9.789561869491563151e-01 1.049401255438533742e-01 -7.302395400747112575e-01 -4.651003121782946725e-01 9.542903360601150131e-02 -1.376761656575485951e-02 -9.261711157998556709e-01 -1.001317517368480070e+00 -3.927437350121337767e-01 -1.187527951872019871e+00 1.215181508394463580e-02 -9.789007326305250167e-01 6.064615309624230566e-01 1.678171875996219420e-01 -9.586194312492491987e-01 -5.437973102244750834e-01 1.874965792678283671e-01 1.141075233408494760e-01 -6.268364581537558822e-01 -6.484079827339277458e-01 -1.314209126003955008e+00 -7.058396148171071083e-01 2.785794769120456330e-02 -6.450330018744346861e-01 -4.650906426236696700e-01 -2.859918095136788074e-01 -1.118572887199748678e+00 -2.172084100105537985e-01 -8.176606703749724758e-01 -7.551764704625937297e-01 -4.424316238809331003e-01 3.405373254167315955e-01 -1.092586787743991428e+00 4.032471810452148975e-01 2.721137661590020684e-01 5.690714199138682261e-01 -1.064910351330392857e-01 -3.303089251589398367e-01 -4.670936062725427607e-01 -2.091695319384855034e-01 -1.525543812219844753e-01 -2.074692730036868382e-01 -1.136813006678618065e-01 -4.525632890062754599e-01 -3.891180103289123005e-01 -6.819958548842698365e-01 1.933384002639528809e-01 5.644591931741818058e-01 -3.110257610913095064e-02 -6.172515372835157832e-01 -1.061108425003519873e+00 -5.094930885322720426e-01 -2.386058115774581517e-02 5.364043333573935424e-02 -1.501089124586054480e+00 2.835135230250808158e-01 -1.055793247733969986e+00 -1.089650703822204886e-01 2.224530222669285906e-01 -9.480770278712209453e-01 -1.031692372180090134e+00 -6.255378331342635878e-01 -1.251728227184635001e-01 -2.362589924713371856e-03 -8.068648609003998828e-01 -4.230042061746934756e-01 -2.762024803643381432e-01 -6.768388522223657278e-01 -5.722866317741678310e-01 -1.514399966578716394e-01 -1.183509402478126887e-01 -4.606044967059446105e-01 -1.665164130349479632e-01 -6.769890068214223788e-01 -1.842855578191750221e-01 3.447307585445146816e-01 -5.834180163507461936e-01 -5.104968969296006520e-01 2.783339949340151720e-01 7.628878517415401683e-01 -8.573368584196888742e-02 -2.306082299301752125e-01 -1.809338784922127630e-01 -5.912860570139870653e-01 -5.983416493625219879e-01 2.635034688627340554e-02 -2.679207651113085786e-01 4.991809585090311030e-01 4.061394551931248875e-01 -3.932715630362900172e-01 -5.374326646931235629e-01 5.663154842734693245e-02 -1.270634692765837681e-01 2.610360278975921711e-01 -6.443683317880509742e-01 2.143646582607208750e-01 2.361607797374148943e-02 -8.169188175054057366e-01 3.092469105768301529e-02 -2.484496342857377971e-01 1.242448815415069102e-01 -9.136516463284068967e-01 -1.700405517727243132e-01 3.708911237775208009e-02 -1.967257238149816345e+00 1.752413354324539596e-01 1.944050148453733140e-01 2.697234848310139932e-01 6.094370116743726834e-02 -6.787746984443228104e-01 2.444971525361014641e-01 6.461140224632678786e-01 -8.780352109781821568e-01 -5.196489279802367633e-01 -8.844121457356014515e-01 1.022084540367887845e-01 -1.404501872823542108e+00 2.325853192478024856e-01 -1.791460440679101540e-01 -1.250630930512490968e+00 -2.922676031508240624e-01 2.129349986375601023e-01 -4.637620840279604306e-01 1.856161164038659661e-01 -8.143592270905497532e-01 -5.334129949622318234e-01 -9.408600925633113787e-01 -7.412578165601256819e-01 -6.532576099862773544e-01 -2.441938970818277876e-01 -6.361538464848160990e-01 -1.341441633025334923e+00 2.430143807963071612e-01 -7.907759883418314928e-01 -5.059550977493382229e-01 -5.270674331747449148e-01 1.413045580284663372e-01 -2.353140034374052725e-01 -2.226521493484063807e-01 -9.336097173081427947e-01 6.969765650218516517e-02 -3.961542427601378313e-01 3.066319536838801318e-01 -4.660555152166859227e-02 7.158116408584466184e-01 -9.026544225767056950e-01 -8.214194104370200478e-01 -8.254473356795175576e-01 -1.177692571250898851e-01 7.341911947811221584e-01 -1.854952740605683992e-01 1.355295688970726831e-01 5.419037611155711615e-02 -8.953682308929438172e-01 -5.162104177957478335e-01 -1.214794330492276808e+00 -2.238615241610374951e-01 1.459420799003217362e-01 3.564441612328634323e-01 -1.200560970776765490e+00 -1.023888190403817289e+00 -9.602513373185572743e-01 -8.259172732903002911e-01 -8.913710023694324525e-01 -9.096001517768079747e-01 -4.151741449305095255e-01 -3.588977630621541515e-01 2.459359521202355570e-01 -6.495219134667272465e-02 -8.777476667103168984e-01 -8.608520428517303369e-01 -8.079322715987713455e-01 -1.050458636546669489e+00 -4.954244853132634407e-01 -1.112897521522631328e+00 2.505641214488065205e-01 -9.672495314914709708e-01 2.576545935825223510e-01 -3.183823791408770809e-01 -1.045105941010870287e+00 -5.691074366176810395e-01 -9.346937280415823501e-01 -5.174910899457382252e-01 -2.012717472636422755e-01 -3.799903594710591914e-01 -1.044756642559488968e+00 -2.654322787098624403e-02 -7.202284487101708876e-01 -9.754884015431873889e-01 -8.986167728142600009e-01 -8.141502201519704718e-01 -1.392426779573777834e-02 -2.740622238815166312e-01 2.520722453938609720e-01 -9.817871267702683591e-01 -7.113121784258520375e-01 2.230131497345006208e-01 3.562402267310720849e-01 -3.546384868946927255e-02 1.113403721207914393e-01 -3.086224723867918018e-01 2.921712518128929403e-01 -1.180093041336425896e+00 2.825232700630911920e-01 6.522619515722450911e-01 -8.373946992387119037e-01 2.717320293824865285e-01 3.121180083209030287e-01 -4.279134954979211813e-01 -4.416240959873330985e-01 -6.325630654337924819e-01 -3.591020164115452801e-02 5.252430252490234430e-01 4.467924684043406147e-02 -3.752424494946160483e-01 -4.985188244974200211e-01 -9.442464992553237790e-01 2.582956396480110550e-01 -9.678089667014910802e-01 -1.063821934732326557e+00 -3.428189060924782816e-01 -2.054610048191330904e-02 -3.974725597548168232e-01 3.452036194946845882e-01 -6.074403689675850204e-01 -1.336848071941446836e+00 -2.774775493399239679e-01 -6.080626935384318976e-01 -3.503766193871034607e-01 -3.431149950911243640e-01 1.959255525378184870e-01 1.948164093427941779e-01 1.527492223413869921e-01 -1.137338976828771386e+00 3.074957175697972112e-01 -6.345766302247457524e-01 -5.177324687356655852e-01 4.073064963528892357e-01 -7.664985195391768036e-01 1.263808741512088274e-01 -3.811250953104436956e-01 -5.249301042538587758e-01 -1.836125102924970609e-01 -1.000812369984456440e+00 -2.123642936257431058e-01 2.777996747896064114e-02 5.102247839400747553e-03 7.404468782028001961e-01 -5.253981480239626745e-01 4.028993402201290208e-01 -7.486723758215982349e-02 2.705990975807230359e-01 3.610621359200154590e-01 -3.112832013025088052e-01 8.800835028742365340e-01 -3.376008887809126002e-01 -8.117965415143653107e-01 1.639288522035826645e-01 -4.665495115511423749e-03 -9.321006054012028752e-01 4.963136749249710822e-01 -4.447275157998454853e-01 -5.699626720679972225e-01 1.936136720501007713e-01 -1.135475233850682247e-01 -8.318670204301928939e-01 -9.184462550879757270e-01 1.147505484124086983e-01 -3.688035827233097641e-01 -9.742927542702878307e-01 -6.005367856244425706e-02 1.032109830237840642e+00 8.469491385966320118e-01 -4.888325794706770422e-01 9.834333660149869871e-01 -1.304848851813976973e-01 4.310580529555937401e-01 -9.361987129221259474e-02 2.497060586426854689e-01 -4.680075188480448678e-01 -1.044246010028383909e+00 -1.327397257673930964e-01 -9.419820334945615548e-01 -4.425001393491930224e-01 4.027977446939277062e-01 -5.063509736833696762e-01 3.586635428499264089e-01 -7.489729543964622760e-01 8.009656877466034830e-01 -9.504243211122535007e-01 -4.878938667083163594e-01 1.290950662348266942e-01 -1.131016946939834789e+00 -1.043173133319612367e+00 1.373122644105838064e-01 4.580237210772241697e-03 4.410845180943069876e-01 5.620481679284075605e-02 -3.572522316487041771e-01 -3.283727188337792202e-01 -4.901786142972067162e-01 -2.676465587019118408e-01 -6.609189600257179276e-01 -8.732424221431309697e-01 -1.845488573176742586e-01 -6.213072671707960959e-01 -6.626289390913556732e-01 3.539576014905733772e-03 -8.867859147971860478e-01 5.799563572264036099e-02 -6.440672945418229878e-01 -5.593264140792696404e-01 2.540210386200608128e-01 -8.472577552540692114e-01 -1.067424453309115812e-01 -7.440215021570073528e-01 -1.513904890048279328e-01 -7.681212234450538467e-01 -4.354275390112523070e-01 -5.965627899977605786e-01 -9.483242458595276814e-01 -7.052692892854320883e-01 -7.598910024504962335e-01 1.613536347526402237e-01 3.075253606283435623e-02 3.233388779576775729e-01 -1.571029935944063538e-01 -7.123559160220217512e-01 -3.830668622666459910e-01 7.156008359692748177e-01 -2.442070084744136782e-01 -5.037493986337711060e-01 -3.297878940806866499e-01 -1.195609545080785319e+00 2.000899524215366820e-01 -2.045693937736668688e-01 -9.312216788397794653e-01 -1.508846318491852356e+00 -1.234275505734775541e-01 -4.724061825777016166e-01 -1.066061439597397298e+00 -1.125977927960517544e-01 2.431999193065336740e-01 -4.569093447584430256e-01 2.611302189475896429e-01 -2.304453988814377796e-01 -8.567313945926391394e-01 -2.246518194037595562e-01 -4.799622251572662757e-01 4.600102227734801930e-01 -1.190883305410023407e+00 -1.376577548250300875e+00 1.639964551893496048e-01 7.159543875511438227e-01 -6.706540071283988436e-01 2.461259585305653197e-01 -6.377549938400547402e-01 -3.063874718145960241e-01 -8.234228951723329137e-01 -3.623192791605868157e-01 1.010896088700413920e+00 1.393293726886667971e-01 -4.580095145277277013e-01 2.647149101274578684e-02 -1.551771155481370679e-01 1.244428106542061069e-01 -8.628039121042899717e-01 -5.346842351376234204e-01 -1.724171500362108311e-01 -9.464701932972141574e-01 -8.843209037950870988e-01 -2.786847898333923434e-01 -1.059920770339265017e+00 -2.561200899324518887e-01 8.388014164844905807e-01 -6.204435146148896685e-01 -4.085155349962795168e-01 -5.824356337593210586e-01 6.084610333256385700e-02 -5.140910888430759718e-01 2.232271909417744005e-01 -9.589890833810376103e-01 9.957427084969358022e-01 2.806531599046518388e-01 -1.566541428272507863e+00 1.294432502362861670e-01 -2.302345341391175415e-01 -8.284549412000977719e-01 -8.269938688134621449e-03 -8.646768203798692598e-01 -9.854676951087694148e-01 -2.874183335699957986e-01 2.805324701841189206e-01 -7.481688632163082664e-01 -8.130979238147036936e-01 -1.911487624505646965e-01 -1.009367696942180315e+00 -5.350578107611023704e-01 -6.208661685498593737e-04 -4.104806487410685989e-01 -1.375339442668246370e+00 -2.510490712383878220e-01 -6.262864805716801264e-01 -4.287267766319660667e-01 -6.099438100566332288e-01 -1.304718437133454589e+00 -7.728211975067647010e-01 -8.634427702452184272e-01 -9.047997743743038113e-01 -6.931561480103105855e-02 -2.580724457652395776e-01 -3.156765288982106843e-01 -8.664194106652362004e-01 -3.329929549415716061e-01 4.604205522750862700e-01 2.740064339843190089e-01 -8.313829671989247938e-02 2.430280051673719133e-01 2.121721715931709218e-01 5.603112450866667427e-01 -5.748913430878876962e-01 -4.663786943754202330e-01 -1.468937603372538092e+00 3.267669604163675467e-01 -1.173323913691849629e+00 4.456043472937660371e-02 -8.259977897294484839e-01 -9.710157173095845806e-01 1.877840586557177893e-01 -2.216743507022229942e-01 -4.665052443443608032e-01 6.142059461228055461e-01 -6.396040246854303168e-01 -1.089154123139573077e-01 -6.496508335479748986e-02 -1.546281522397057462e-01 -9.591297768436227167e-02 -1.457484214966597857e-01 -7.491886085179753074e-01 -4.326832190247916626e-02 -3.996659475291924890e-01 -3.598725555697402934e-01 -1.205783819965239090e+00 -7.994225263743899301e-01 -5.493216332298920257e-01 -2.134541444409340238e-01 9.211755119280490289e-02 -1.514403580614813172e-01 3.371330279254860368e-02 -1.227096673603773336e-01 -2.453608579421921176e-01 1.386725019523355473e-01 -9.483245608952753924e-01 -6.885956104314537862e-01 -4.427971824147507451e-01 6.378634272634232938e-02 8.556920637898950133e-02 -9.090623529537601444e-01 6.242277359825053606e-01 3.331525375926335242e-01 -4.819698117613309685e-01 -5.702493651216296311e-02 -3.412587854009433430e-01 -2.242238798622812057e-01 1.362707067399480942e-01 -5.177420250741977537e-01 1.190375056829310746e-01 -1.390217329025477344e+00 -5.445117766656784042e-01 2.922569940109429054e-01 -5.529429763072020165e-01 -2.119889204013528372e-01 -1.418016141273429120e+00 -1.162795758211439878e+00 -7.649392635299614440e-01 -1.025661991213334900e+00 -5.524850764861183317e-01 6.851576641312753235e-01 -8.927075136197167027e-02 2.946961394954165647e-01 -7.087179865321412142e-02 -1.581170960179603957e-01 -3.711663173059032150e-01 -6.632388453911001180e-01 -1.363991223805554931e+00 -1.116831510821232332e+00 2.859282539355573749e-01 -6.843548941906089089e-01 4.205603529202025376e-02 1.339585030690235712e-01 -6.820959439574612038e-01 -1.248052829001418562e+00 -4.848370785675491790e-02 -2.255104612404684739e-01 -1.343621307892110539e-01 -2.278581116201787438e-02 -1.093370578481123352e-02 3.214998735977743216e-01 -8.046450103437277068e-01 -9.087366722760243931e-01 8.183275096811016835e-01 -1.045562885541006626e+00 -1.411541828700143331e+00 -2.187630262138554604e-01 -3.136540497380423953e-01 -5.684694684311306645e-01 -6.635020165809664139e-01 1.126133076419291612e+00 -9.527206777545934591e-01 -2.479600677688944821e-01 -1.051062824708077992e+00 2.113423643614536496e-01 2.549289978463912809e-01 1.680340907515209259e-01 -9.159805346956481076e-01 1.308187308499045853e-01 -5.574221918217826506e-04 -6.233388883447346096e-01 2.535231022119385225e-01 -9.284260662015980659e-01 -1.114865316806913587e+00 3.057996327572202744e-01 1.539777517078607938e-01 4.083726775630964201e-01 -2.265954200717323619e-01 -8.490383162310518594e-01 -3.082746744971601727e-01 3.791155116647696999e-01 -5.210928885176603631e-02 -3.308850117765936849e-01 -9.101606110075201039e-01 -1.244353190868992876e+00 -8.975410322365060534e-01 -9.221020775213984999e-01 -8.151181687023411060e-01 3.220834386653798065e-02 -1.463087505473194661e+00 -5.296854517934338480e-01 -9.244798702741147123e-01 7.337335887821819780e-01 7.967981744366335883e-01 -1.029632741368354587e+00 -6.176304186900092308e-01 -1.007541984101138210e-01 -9.654266983641106581e-01 -5.093425104709516926e-01 -8.907125420434585106e-01 -1.008437467048351577e+00 -1.422930883895728638e+00 -7.957323824746588281e-01 -5.077489468314707599e-01 -2.731623589662377505e-01 -3.334361228521667275e-01 -7.322644078893372210e-01 1.591407538872100236e-01 2.028610053456969264e-01 -7.683927562203526351e-01 1.592588115992046027e-01 5.982364849358722259e-01 -6.859658807596424879e-02 3.578503747498731347e-01 -2.100844071308062277e-01 -8.341655843103130685e-01 -7.565789045368969123e-01 1.090491678387430108e+00 -8.015215556634558425e-02 -3.322835432360343177e-01 -1.459099767903473399e+00 1.637796373437936381e-01 1.164449672829075633e+00 -7.664460661044502077e-01 -3.260828506972222041e-01 -3.952341286164652856e-01 -7.604773947218912422e-01 -2.475944502082380594e-01 -6.268593535884882106e-01 2.309465769289670012e-01 -9.598414315457748369e-02 -7.880563850830990535e-02 1.157667740723831828e+00 -1.806055354935346413e-01 -1.502382322448002627e-01 -1.214584851866556264e-01 -6.370442647520353496e-01 -7.752365744467663022e-01 -1.272014010296715458e+00 -7.633405862342320658e-01 -5.738039785951809524e-01 -1.005292168774601924e+00 -6.898359480101248220e-01 -2.200115630373056796e-01 6.054997359699724191e-01 3.071428597991623932e-01 -6.101334076635175352e-01 -2.215149614296863800e-01 -6.019358686163701622e-01 5.209491121280932502e-01 -5.431179094218372416e-01 -5.927117599206903620e-01 6.642409266618600761e-01 -1.269952960812093190e+00 -3.460208495689703345e-01 -1.062630146867678871e+00 -6.161678969417258567e-02 -3.185819018477726861e-01 -2.385770244656300609e-01 -3.882452341768360786e-03 1.366127537979833773e-01 -3.532435275887563786e-01 -9.586153666132963061e-03 -3.442102785649174268e-01 -3.501401093900156636e-01 -7.402385840173510978e-01 2.141202221517947701e-01 -3.833051331890171554e-01 3.332595292044036595e-01 4.525035089288607093e-01 -4.937821398045729171e-01 -6.679644645568544314e-01 3.629214669850056585e-01 1.077798755427806787e+00 3.488710801617468937e-01 9.644905245116712766e-01 -2.366122700973793958e-01 -7.424825360264347696e-01 5.824834779466975254e-01 -3.268443416611481189e-01 -4.375962041377678968e-01 1.025688792659094739e+00 3.296863333055152778e-02 -7.704491411406916290e-03 -8.093187318278581843e-01 -1.389885668085064641e+00 -5.659557121208499408e-01 -8.473156798906271714e-01 2.030120273273706977e-01 5.348914705502377798e-01 -1.221019279188176432e+00 2.876765329200345334e-01 -1.944234152224417200e-01 -1.027150306289234427e+00 2.592112594378280788e-01 2.487214382646774635e-01 -3.892204446854691247e-01 -6.965220312002960712e-02 3.319844405415568467e-01 6.728745186955257251e-01 4.555426802585062496e-01 -2.844322255610580163e-01 4.668941183721922461e-03 -8.674690014337959054e-01 -8.484735991322848170e-01 1.148197756941075620e-01 -6.380494027966956416e-01 3.179023316449858805e-01 2.047275880035812623e-01 -5.126919498225783745e-01 3.538880407339582701e-02 -3.618814176695226426e-01 2.341136166992603407e-01 8.318792020917331609e-01 -4.979977414153497484e-01 5.071638506844172722e-01 -1.726826341195887848e-01 -6.686515389258870234e-01 1.525027148260115449e-02 -7.647340487437763734e-01 9.528994148130191799e-02 1.137144855964824508e+00 -6.866757441606292645e-01 -5.539698502677258274e-01 -4.834468731425908272e-01 3.983133178323206014e-01 -9.095496419209158079e-01 -3.333953826206231819e-01 -2.763602461336441829e-01 -2.775883165971870792e-01 1.557446973599349860e-01 3.314052699447864181e-01 -9.519316469355433297e-01 -2.405396304003018515e-01 -2.080445094291690500e-01 -1.515711130506748883e-01 3.770429490801893158e-01 -3.929585160726008497e-01 2.184448444188129279e-01 2.885088152791897009e-01 -5.605906359951294826e-01 -1.679211228331716765e-01 1.435622569984265906e-01 1.382746008835031015e-01 -7.448093391971549737e-01 -9.254280418192106783e-01 -7.839539447536697514e-01 -9.536449107272330084e-01 -1.039019798803732630e+00 -2.469853274937519605e-01 1.573408256697269580e-01 -6.313604801520745768e-01 -9.274417708936320004e-01 -2.053467934829741048e-01 4.052993120471844457e-01 -5.322442940417458912e-01 -3.705399863279989492e-01 -8.076091296885880011e-01 -4.268613814599690470e-01 -1.351564479442505518e-01 -1.368606006950313869e+00 -7.969249765254600160e-01 -5.700152421872715092e-01 -1.375520437589377587e-01 -2.344607686507953759e-01 -1.044081137160268041e-01 -4.103686536683553987e-01 8.563182266079091831e-02 -1.740264251595194378e-01 -8.267519112812347915e-02 -3.120033730775242375e-01 -4.098820474076015352e-01 -6.156122570429821694e-01 -1.042693281263811667e+00 -6.242053175912284368e-01 -4.696842528237225034e-01 -2.884880002566729204e-03 -4.736914127191830803e-01 -1.271236512273371533e+00 -8.717227145709853797e-01 -2.913989384653504211e-01 -5.223299532751898150e-02 -7.615113602361686107e-01 2.874038326897761508e-01 -2.792936358444791378e-01 1.560385720016833344e-01 -1.452661351332184547e-01 7.483797036676971548e-02 -6.629109247097317859e-01 -2.785626617162491048e-01 3.182899367706025218e-01 -1.862572671556354420e+00 -5.712851531348535072e-01 -9.222569164011229503e-01 -5.389060009253594519e-01 3.534403394836223011e-01 -4.442467423672232796e-01 7.759334249935729844e-01 -6.911414949033979349e-01 3.301677333103130163e-01 2.071661827075556572e-01 -5.732096384312985737e-01 7.714793384202521809e-01 3.820171144999808255e-01 -9.730748423930837276e-01 4.036407299575087704e-01 -3.180063947054552753e-01 -1.278870915616976855e+00 -5.459132680319923603e-01 -7.896698909608269590e-01 -2.658105888023959973e-01 -1.368959507734520409e-01 1.009497244627044071e-01 -1.742350123080499413e-01 -5.213609707452894204e-01 -5.169277264923566491e-04 2.654067874953986578e-02 6.613142493518039955e-02 -3.604462646668485926e-01 -1.010702712295461977e-02 -6.086875640493386586e-01 4.513443373893228361e-01 -2.339314074579987413e+00 -6.884330561327369757e-01 -6.422049239944747911e-02 -5.631600635614966155e-01 1.819867089703514351e-01 -7.960888062051604264e-01 8.905504351982269917e-02 -4.016282715333962527e-01 3.331268588669262787e-01 7.047106811888756983e-01 -5.721080437800944996e-01 -3.626892284684998802e-01 1.814553502532377516e-01 -2.533900033015430986e-01 -8.636684569500647779e-01 -8.702302645707796769e-01 -1.942832310419167000e-02 1.173726879537317046e-02 -2.503096591264328263e-01 -2.550278085244726545e-01 -4.748222552170524025e-01 1.176569926600330579e-01 -1.264228232255372730e-01 -3.518119716368315331e-01 3.897070186802600866e-02 -7.217824419114101664e-01 -3.735361389210333227e-01 -1.045602596953782104e+00 -7.291345330591717522e-01 2.591629182469185610e-01 1.904589404819773957e-01 3.647891674019113628e-01 -2.111249218333159927e-01 -1.888231962402857622e-01 2.090992110231290890e-01 -4.609625465541854483e-01 2.294730637931316486e-01 -3.310804354683249962e-02 2.591981625033303871e-01 -9.177287298068546040e-01 -2.931703376718099996e-01 4.514633371014767915e-01 -1.177333965573491709e-01 4.439600078869211930e-01 -6.248411132597940787e-01 -1.042029857566301843e+00 -6.832686332556724418e-01 -6.731672262021017039e-02 -1.675371630265072076e+00 -9.288453988514367987e-01 -5.310959089023208346e-01 -1.015285234329249109e+00 9.626078259952633442e-02 8.817153288887147333e-02 1.225713493743296467e-01 -2.954842077757255381e-01 4.467258282840688710e-02 5.531925794361223225e-01 -1.921624878634982381e-01 -9.099978587900310611e-02 -5.864657598017788964e-02 3.327238131824982736e-01 -5.575749699965270034e-01 5.205935967086908756e-01 -5.281548292982476411e-01 4.290844584544352414e-02 3.639657122992014798e-02 -1.326009272118577331e-01 -2.108325423618345393e-02 1.017856705586245858e-01 1.332180365843451675e-01 1.947243821219388216e-01 -5.228149107595231326e-01 -1.042816165452793431e+00 5.011192380093296844e-02 -7.913374796335346240e-01 -1.081580127093830335e+00 -5.764543582098896612e-01 -1.457225610584795272e-01 -1.053204366310345419e+00 8.921424940261492020e-01 -1.002663335513152454e+00 -6.096913613426470091e-01 1.268422437093967847e-01 1.459032105902096366e-01 -1.682964899087141752e+00 -9.423680133021082594e-02 2.467585076193936633e-01 -8.555070290074173744e-01 -2.951635302224960844e-01 -7.941497296970212449e-01 5.173624726411338859e-01 -7.632213155620823919e-01 -9.345120826091278809e-01 -8.894873722280309813e-01 -3.299392308653587569e-01 8.174869759888688803e-01 2.784189275707736333e-01 -6.735826762336689644e-01 3.513429991470998215e-01 -3.144579425069514433e-02 1.968721202468053655e-01 -6.962545106934201478e-01 -6.363492640609316187e-01 -1.815715978250861951e-01 -6.835678143089227721e-01 5.351089810194568086e-01 -1.193953597437506842e+00 -5.721278879558150919e-03 -8.145624003278707503e-01 -8.594839870153136996e-01 -7.508549128692664221e-01 -7.309731353023522782e-02 -9.706605995458469360e-01 2.534882982089393597e-02 -2.349003449959709278e-01 -4.906652538273412190e-01 -1.296562275731062697e-01 1.470851015569368814e+00 1.523216336318814701e+00 2.994416319759920508e-01 -5.960532755526235515e-01 -1.096648028250311713e+00 -3.849168163070140758e-01 -1.297886641167657285e+00 4.349305014344532344e-02 -8.624068443829907560e-01 3.187164805414350877e-01 -5.818630566157773076e-01 -7.090717184153811914e-01 -1.038502425811376473e-01 -4.176936631633089148e-01 1.212338280137013724e+00 -6.696057592622424171e-01 -7.064156915598321929e-01 1.130836722304556369e-01 -3.318929344435194162e-01 -9.608719143472552182e-02 -3.416175177384622175e-01 -9.680240837585882274e-02 3.152509215916656227e-01 3.352839442383535595e-01 -1.005349591429827161e+00 2.992857574744872129e-01 -8.387788818166151961e-01 -1.003707111837784938e+00 -7.212268050155177246e-01 -6.733579162685748853e-01 5.381920056650988382e-01 -6.063715126371130998e-02 -7.823373152992851853e-01 -7.811267809025795872e-01 -4.734972505051507352e-01 -3.622975459632490902e-01 -3.528687042420061704e-02 2.010809381251173200e-01 -1.972181991462015546e-02 -1.095459898357354495e-01 -1.457892468061385872e-02 -1.326164927640880453e+00 -7.125415253955701411e-01 1.017846092614642095e-01 -5.627105571634615222e-01 -1.034108919015130246e+00 2.103023273251342362e-01 -9.824925618185800236e-01 4.014587002365301305e-01 1.358339949236980204e-01 -8.522883276676691544e-01 -1.314174217556229429e+00 -1.613871152587044167e-01 -6.218768769197573487e-01 -4.605907471959348465e-01 -7.392217156217703034e-01 -9.940827501287547996e-01 -1.102149523931062358e+00 9.331627476436035046e-03 9.792346883539838620e-01 1.689477574877985486e-02 -4.143035912080345051e-01 -9.577329712900685132e-01 -1.288025200770966272e+00 -4.427902928806744520e-01 -9.303915467683470109e-01 -6.950820290108399302e-01 4.674389810206505125e-01 -6.168292266502004573e-01 7.641523675749707645e-02 -2.057545523135585058e-02 3.542736993096135545e-01 6.863832272178669314e-01 -3.199730633302662608e-01 -3.070752329120791935e-02 2.836124533652698565e-01 -5.025242383476568042e-01 -1.819064073410617544e-01 -1.570470649153608012e+00 -1.618076599893705225e-01 -5.582908183589273543e-01 -1.412157085288825886e+00 -1.105453597989454861e+00 4.230527013742040876e-01 -7.743065407343975304e-01 -2.308039174273138538e+00 6.412436177553656330e-03 -8.549640133047993196e-01 3.632466869874316218e-01 -7.815262200959171013e-01 -7.670107897891044191e-01 -7.915391922954539972e-01 -3.729537034472062973e-01 -1.570858849288763848e+00 -4.340294571912112209e-01 -2.364167149834327936e-02 -3.012386048683448059e-01 -4.435534110693908350e-01 3.431475756415499623e-01 -9.928336758912931215e-01 3.614684016786828269e-01 -8.154997628715072999e-02 -2.968477598904314951e-01 -7.945576127978931646e-01 -5.106590364975666096e-01 -5.241350680815066720e-01 -3.435901350507978846e-01 -4.907276141047222096e-01 1.497637995013347545e-01 -1.558454767427905452e+00 2.388472468245186886e-01 -6.616831994212736545e-02 -8.410488757218025357e-01 -9.825194499832622386e-01 2.568053789069014159e-01 3.549369240675463444e-01 -2.993029522602952061e-02 -4.507597894861231635e-01 1.023356239466987616e-01 -1.304189538130290371e+00 -1.656449103765076092e-01 -4.392783741659310737e-01 -2.339175033764853695e-01 -6.788922619410006076e-01 -9.023014439985702628e-01 -5.764216978338870812e-01 -1.044854408517171540e-01 3.253371440817403593e-01 2.284355271795253661e-01 -4.742137694136788068e-02 -4.739684153887815249e-02 -7.846760069231678569e-02 -4.757016366140406349e-01 6.555408051445409980e-03 -5.019561485533448053e-01 -3.904684912844501032e-01 4.025621049709380839e-01 -5.353272163645935722e-01 -1.542561292182314858e+00 -3.400671221850852244e-01 1.151386440402478728e+00 -6.204213883194357182e-01 -5.567358859650326508e-01 -1.202449406437838375e+00 -1.271825935567962418e+00 7.872697679423869277e-02 -1.342865127319862628e+00 4.865000198176527152e-02 -9.134354054566947712e-01 -6.763693121767259120e-01 -8.550834711633496787e-02 -2.636124214301021063e-01 -9.522838285890696808e-01 -6.403996389339298156e-01 9.458359252021650843e-01 -1.125385645078524760e-01 -2.080062800372055876e-01 -9.182500475722472633e-01 -3.584265414664217775e-01 -1.034300161523566741e+00 6.417300239614140422e-02 -3.229918939959698365e-01 -2.136620934469142252e-01 1.576946627561568171e-01 -4.267994525530627858e-01 -6.354558198746044217e-01 1.326777230162890509e-01 5.638585685504744760e-02 -2.808466651315703055e-01 -3.092648410674636028e-01 -1.538309353240367439e-01 -8.139282358927192318e-01 1.941839432242350727e-01 -5.008393907040634696e-01 -8.792269094001923246e-01 -4.927009461682097524e-01 -7.599894598557301872e-01 -1.823667965622098874e+00 -3.819930824070298381e-01 -8.281246768267238600e-01 2.889778331025000258e-01 -5.909127988032222278e-01 -7.887212388971951427e-01 -1.011141703148690230e+00 2.137279206187432945e-01 -5.577077380880066659e-01 -7.874655701993882317e-01 -5.355302361279888901e-01 -9.239032331495083961e-01 -4.117838893274387568e-01 2.886770232093071042e-01 -5.771913665066034094e-01 -4.251982072369406285e-01 -3.947349141006048501e-01 2.655340692557407456e-01 -5.811190273624501357e-01 6.348249065836943095e-02 1.699816010196766314e-01 -3.237873605457599474e-02 -5.266398303446195861e-01 -9.594100050254310563e-01 -6.238152769692913990e-01 -1.085078748419611161e+00 -3.343476403284392218e-01 -1.662818017080935906e-01 -1.829301897911899122e-01 -1.384465613523047756e+00 -3.757123324189038521e-02 -5.140940471608257401e-01 -4.467799518834187911e-01 -1.292472824417015165e+00 -9.873947776217469885e-01 -2.253870579637759497e-01 7.923977755313896254e-02 -9.631308026034279823e-01 5.528146761364074457e-01 -3.953012793360854427e-01 -3.968255504106500409e-01 -9.782889262075263742e-03 2.928647526373492904e-01 -1.510030672258748929e-01 -7.841786463158237908e-01 1.211217026399046826e-01 -4.621846469166479565e-01 -3.569599798964711024e-01 1.735148582517118676e-01 1.223862069587693668e-01 -1.019341839732889277e+00 -1.002416178619449649e+00 -5.303918031140795186e-01 -1.058157653409904864e+00 2.858881523857950691e-01 -1.269944064513403026e+00 -1.109916965474061046e+00 3.330574864927442480e-01 -4.984552202589591086e-01 2.336409610235460899e-01 3.904335943041465917e-01 -4.778968723888158410e-01 -3.575464906543350807e-01 -7.686439557885166307e-01 -7.752413873452631554e-01 -8.057496004626947261e-01 2.648924431811487956e-01 -3.602224211119038899e-01 3.058114195273886615e-01 3.485702281279098314e-01 -7.547379470995427830e-01 -3.109911696530208713e-01 -4.385114237619147093e-01 5.375797493845451136e-01 -1.552650749635078320e-01 -2.240673431148814954e-01 -2.066348343218881722e-01 -1.618114186705162494e+00 -9.076757244319416662e-01 -9.892654598417731648e-01 -5.667217228998669976e-01 -4.779308670321451291e-02 -1.873929422893363117e-01 -7.133059248110813488e-01 -4.135650506641787572e-01 1.633140606019058416e-01 -1.548811632485713075e+00 -2.450327470909368921e-01 -6.134988845553358550e-01 -1.520535955417368079e-01 -6.333979654657192482e-01 -5.123469142146314104e-01 -3.252148300014252036e-01 9.926330043205795761e-02 -2.187894784852589536e-01 -6.472877709002103908e-01 -4.053909680176157049e-01 -1.583400083929749069e+00 -9.771411330909992587e-01 -3.863975694141026929e-01 2.476882908154798280e-01 3.166989496316052199e-01 -1.035474675334029593e+00 -8.180919516009667047e-01 -7.673279860122187435e-01 9.851236787878669965e-01 6.868339717837359526e-01 4.516357629791993289e-01 9.937817906179555183e-02 -1.259003650968693599e-01 -1.998647802775489202e-01 2.469189516190269940e-01 2.078460931272614332e-01 -3.988688637467366904e-01 -1.043885872546526761e+00 -4.341091123947828923e-01 -5.503374289630224014e-01 -2.098051907740339506e-01 4.121492090886989534e-01 5.449970861045734249e-01 -1.063572426884387578e+00 -9.267974857284340118e-01 -3.080917057506868048e-02 -8.128411898995346885e-02 -6.955725558596503877e-01 -5.959734236552441944e-01 -5.540369701129349567e-01 -3.620778472155947170e-01 -7.139184662269536519e-01 3.497040820250423843e-01 -7.567598289513515208e-01 -6.582511407064753906e-01 3.386792856615371550e-01 -3.390488963499681541e-01 -3.566305064253469381e-01 -2.925464675215357357e-01 -3.205792553208151041e-01 2.426643309269184978e-01 -9.033208929392184672e-01 -1.692763229444672057e-01 -9.256983293806662905e-02 2.706998823658829934e-01 6.499570306212162918e-02 -1.101913612132095155e+00 -9.936519885918088102e-01 2.250539876317915466e-01 -1.038230902419854829e+00 -8.166092918432753534e-01 -2.502640809738220229e-01 5.819339472346115594e-01 -8.298157876734187921e-01 -1.006521290441072081e+00 1.636668932589444014e-01 5.842309565795088533e-01 -4.200904963105425161e-01 -5.908484160420655051e-01 2.802029490488628372e-01 -1.286762239771703335e-02 -5.938804695630469643e-01 -6.347882145799322862e-01 -1.172686622898745590e+00 -1.443249144309533272e-01 -4.389351344084307938e-01 -1.197454249896248824e+00 -9.608414709887050376e-02 -7.304143437818665374e-01 -7.269098973387730922e-01 -1.694219929672868136e-02 -1.517135521614432769e-01 2.688255835645532721e-01 -9.251685604455669454e-01 1.656612112066292719e-01 -1.004098377556802868e+00 2.008770906984218840e-01 8.202822533633921109e-01 3.458473562710427940e-01 -5.594399733847383871e-01 -7.548782154288254942e-01 -1.305120097036362337e+00 -1.279356231818773004e+00 -9.106332522258665518e-01 -5.322781377985758011e-01 -2.280048395109608439e-01 8.823381613087229181e-02 -2.165589504477423155e-01 -1.004816460441727566e+00 -1.557587552096005579e-02 -1.182268697334274421e+00 3.588864066367297156e-01 -4.061510113489985585e-01 -9.678072173809183498e-01 4.554382790577454765e-01 5.074226508809867031e-01 1.181873304803960634e-01 -5.579675315890801901e-01 -6.185451331876354875e-01 1.719425031403250537e-01 2.083896555032161702e-01 -1.382521018455064254e+00 8.758576872448939898e-01 -5.201935900532048650e-03 2.772304094078062442e-01 -7.913469780030263356e-01 -5.278384889969455207e-01 -5.965516665147899689e-01 -8.405263758561289933e-01 -6.010558315318539208e-02 1.288908151079767028e-01 3.153651849093823401e-02 -5.050293834320812580e-01 -4.902732216654259179e-01 -6.168967158276165152e-01 -8.096480031086872309e-01 -1.117037487368210513e+00 -6.538994170125338457e-01 -7.182174492910673447e-01 1.750038840900852710e-01 -9.267915141774922816e-01 -8.035958103840015188e-01 7.601071576885140568e-02 5.791221709767706560e-01 -1.035175989173220179e+00 -3.999987913223023162e-01 -5.893201500825685502e-01 -2.180373172817671457e-01 -7.499416810722069060e-02 -1.379816120714834948e+00 -5.455453721381124943e-01 9.940308631349090707e-01 -9.857236105430609019e-01 4.889158387488117263e-01 -7.914515447165643147e-02 -6.533703089668831121e-02 -6.693164554977620861e-01 -9.026449387360018228e-01 -1.781129464159416420e+00 -1.007773261860508640e+00 -3.364578364621506612e-01 -7.133578363586510207e-01 -1.803232772530830808e+00 1.159377178680841419e-01 -1.310343015447988924e+00 -2.016016438577914738e-01 -9.983693265160188401e-01 -7.233582980928295048e-02 -8.399900427913664647e-01 1.578871300101643560e-01 -2.207044323281881493e+00 2.263717815447172099e-01 2.339112461266349141e-01 3.735533519020821369e-02 2.498362451333425160e-01 -3.285987561386727873e-01 -2.735425282378048037e-02 7.860464413328119293e-02 6.981379456183373078e-01 -5.695458140618220311e-01 -4.793633772502807755e-01 1.826552635225960619e-01 4.594851310984248705e-01 -2.550944389672770707e-01 1.544939322368520107e-01 -8.769168214826219554e-01 9.467260950329497993e-01 -8.895422229938151903e-02 -1.190830517897032287e-01 -1.393100255468031901e-01 3.410135729677017391e-01 -7.010071076718542571e-01 -3.511728216203227615e-01 -4.423614590039972594e-01 5.986177249399728950e-01 7.842704107026048366e-01 9.805130945833599385e-03 -7.706114018767145080e-01 -1.514883853016662618e+00 -8.683205960152200475e-01 -5.492898897039811823e-01 -3.107563961631258920e-01 -1.045739023493422071e+00 -5.527031990204955836e-01 -1.398762531483742910e-01 1.478783452445563695e-01 -2.907733701613288702e-01 -1.286053907147722275e-01 -5.760195023435232126e-02 -6.846475641385012523e-01 -6.472696126402384120e-01 -8.604152077915330210e-01 -1.372282785189394005e-01 -1.036996471589206846e-02 -6.443586938574593637e-01 3.153448943646884328e-01 1.667853570949581754e-01 -5.317267881691102316e-01 -1.832372354152669525e+00 -1.166993829880448974e+00 2.982006318588265592e-01 -4.345444297547932933e-01 -1.793096697010741480e-01 4.136502473216847608e-01 3.483584145813953814e-01 -1.061244735617064228e+00 1.690723735082318990e-01 -1.396691959399543936e+00 -3.219128744003825204e-01 -4.730534737921546773e-01 1.797142740605008754e-02 1.839947950240836128e-01 -8.731808993415673958e-01 -8.852876981092172581e-01 -2.065583349234879351e-01 4.507674699099934457e-01 1.017532001850816714e+00 -1.280417456718658253e-01 -7.891304429383505514e-01 4.109538093909573253e-02 9.401438036432252857e-03 -3.527799309542480888e-01 -3.376402034090677517e-01 -9.862528168980309040e-01 1.107736188953622580e+00 -1.030194548165521473e+00 -1.301815944182165286e+00 -7.882044087603207183e-01 1.623815412195843688e-01 1.715672612323800306e-01 -5.318900658243086443e-01 -7.463232930443118862e-01 -9.430559251773653617e-01 -3.028147750535822857e-01 -6.338487194128408220e-01 -5.375432021149540579e-02 8.254953880374410469e-02 -5.293931413242485284e-01 -3.649266942973899419e-01 -6.023710327282931765e-01 1.380251884757481839e-01 -1.291176986112269331e-01 -4.471194122306832996e-01 -3.614427619656069846e-01 -5.444185616978850506e-01 -1.968003666344261271e-01 -1.054400214292140925e+00 -9.644990159725014278e-01 -9.745189406068957005e-01 -2.921728800274617233e-01 -2.828907379836130831e-01 1.492006808695581048e-02 -5.658245164836621655e-01 3.540051990538481408e-02 -1.068723045453354503e+00 -9.671165617904986522e-01 8.019222233409992184e-02 -2.455602897575190902e-01 2.404482504417251587e-01 -9.553184758719905634e-02 -8.686699732919636041e-01 -1.016923926465123307e+00 -3.324689980521201016e-01 -1.203147693623352943e+00 -1.030000940644638208e+00 -3.481870514015363294e-01 -5.988907570782230350e-01 -2.197435897563400353e-01 -1.989816752794107135e-01 -8.243761180898451224e-01 -7.516817077782229628e-01 5.747678915162802715e-01 -4.680449836222428939e-01 2.166778154479097052e-01 -7.632734391402157259e-01 -1.629367471531836475e+00 -4.303777286754875697e-01 2.030744313994694572e-01 7.758599523112835739e-02 -7.243813461484058802e-01 -8.963342758240607777e-01 -4.187413283995861102e-01 -2.632676627884222853e-01 -5.650818357250572133e-01 -6.088933717663564948e-01 -5.969913316215189059e-02 -4.882466921941577276e-01 1.303990719776130514e-01 -3.542034966081616942e-01 -2.299661592820118616e-01 -4.547891679035975798e-01 -4.060582901021370095e-02 3.258644527680549241e-01 -7.482031274238728491e-01 -7.655026336137240595e-01 9.783823989986163705e-02 1.178466853513610302e-01 -2.280764918220879456e-01 -7.970077296639621611e-01 -9.204822199120692439e-01 4.945236533301594073e-01 6.803379813642554952e-01 -7.277984138730443364e-01 -3.254363438674056641e-01 -7.102834245282885206e-02 5.297360126170859163e-01 -1.811089582874281512e-01 4.687102261913498324e-01 -6.455387103075578281e-01 4.139791134567344932e-01 4.524238238776649434e-01 7.840940463362767732e-01 -4.456168876543537549e-01 7.532779378447060359e-02 -4.555642723145840733e-01 -8.682449969218710706e-01 -3.560549902760160035e-01 1.555176771391830401e-02 -4.575870184289925202e-01 -2.107129975009699174e-01 -3.609172710687682528e-01 2.614672618044476260e-01 3.136044486973356138e-01 -8.531057444286158642e-01 -9.232950085979746424e-01 -7.018702928087903192e-01 -5.744852543814473744e-01 4.814017212933786038e-01 -5.387781574347554336e-01 4.006899749382095838e-02 -5.802445719514214284e-01 1.621428357839459489e-01 -9.043270090444154308e-01 -4.334788281927863252e-01 9.047670976695450229e-02 -6.563492713183114446e-01 -8.988081998610657486e-01 -6.267734363860424374e-01 -2.635945505417967016e-01 -3.555054378677728888e-01 -8.634935749135748406e-02 1.421757488373194545e-01 -1.157899353016403232e+00 -5.842564899158031455e-01 -9.878780898177331737e-01 2.478819797040959505e-01 -4.272055022220286880e-01 -1.328059633403875894e+00 2.338921934396671343e-01 -5.061247305964502452e-01 -1.011620377583595659e-01 4.603261145140590260e-01 -4.880176797646182951e-01 -7.648878413081736105e-02 -2.974469906791072926e-01 1.240788991685778525e-01 2.019952614271803004e-01 -9.036738792155940558e-01 -3.739748691913832301e-01 6.149818168359928450e-01 1.765844830475824523e-01 2.982720083205285255e-01 -9.056673898263870592e-01 -5.249921186072580293e-01 4.251634816127614069e-01 -5.013211324360659082e-01 -1.057459350281035659e+00 -3.751544171283808793e-01 -3.249490889588876330e-01 3.021285309459186275e-01 5.984653741381908837e-02 -7.661699157599886068e-01 -1.238776887266058585e-01 -3.698503707061519541e-01 -2.046973347284595790e-01 1.225891347116510460e-01 -4.265490464872011556e-01 5.010650772028291122e-01 3.929247376427867366e-01 2.628106005133782341e-01 3.939342906571372538e-01 -7.931305239789634420e-01 -5.256436655280557427e-04 7.589323346493871414e-01 -1.112187585820289676e-01 4.704559230101608702e-01 -7.802220635340323396e-02 4.693650719636960345e-01 -1.057107266839765414e+00 -7.580487612500050876e-01 -7.986945413174613151e-01 2.132059645917885882e-02 -9.173904352121142747e-01 2.714629411374842594e-01 -3.246190875943068543e-01 -4.467686464271524716e-01 -9.041466275777437778e-01 -1.114861182586070545e-02 -1.004666131928937250e-01 -7.617167763032590688e-01 -5.724808182404796941e-01 2.349484457324712838e-01 -8.741774339768318969e-01 -1.324961547036555554e-01 -2.863588280430303112e-01 7.953537774267009919e-01 3.072997515283607678e-02 1.395235556511418284e-01 8.892339126610825095e-02 -9.036512298446061076e-01 -1.007138199581268045e+00 6.311303211266573732e-02 1.143235634875883477e-01 -7.309945085358787731e-01 -2.413627131652014979e-01 -6.050985865849776157e-01 -2.141967158937856108e-01 -4.222926204064553768e-01 -5.479561891476192326e-01 -4.238793332787707535e-01 1.022046169063745902e+00 -3.688064286043320206e-02 1.101832171575250069e-01 -5.346394557771223521e-01 -2.229349450821485334e-01 -3.571975961337271466e-01 3.778968098885819304e-01 -1.122440509209516435e+00 -5.526002922262983619e-01 -6.665663225866669261e-01 -7.575336904998221099e-01 4.585098931728346372e-01 -7.342146798325247525e-01 -3.986233816834805488e-01 -1.089274961551267795e+00 3.503109515891734693e-01 8.975694402673890793e-02 -3.828424395033512839e-01 -1.075751290863466020e-01 2.582037314145897988e-01 -5.129322430918265008e-01 5.886317603837614570e-02 -3.537963824103023680e-01 1.385404750490809855e-01 -7.179114544365243766e-01 -1.508033780736932616e-01 -3.759378979935988352e-01 -1.842993551099789129e-01 -9.143673910604863675e-01 3.283677558027296994e-01 -1.351970525094817466e-01 4.431500866343541234e-01 1.982683369452346023e-01 -3.646324348567004381e-01 1.085312435000101577e-01 -4.461970273151764088e-01 -1.563868788568120380e-02 1.039604708573777181e+00 -1.058024861165699715e+00 5.842025409385961238e-02 -7.917886216218145146e-01 -1.255444361077213689e-01 -5.877050780429630139e-01 -4.752636018107984084e-01 -8.081891946745147770e-01 3.517759692069626909e-01 -1.161508444199106233e-01 -5.281575934106410575e-01 3.255997887488612519e-01 -1.304350781787578517e-01 -1.034470581581362209e-01 -8.177118827807944301e-02 -3.001820891377550149e-01 -3.245879091958687318e-02 -7.241653250867748914e-01 -1.365846977191123246e+00 -8.781957658928679633e-01 1.125426290896859749e+00 -9.741781777477119542e-02 8.867832682244372600e-02 -3.518843660718012356e-01 -6.635217943463980750e-02 -7.395909268899043543e-01 -2.867849558486693651e-01 -8.836778881980181244e-02 -1.003046017381586275e+00 2.852333973264871078e-02 4.256392220418055150e-02 -1.715898843283406583e-01 1.169270546704475333e-01 -3.851725592002850918e-01 -4.230664578321677305e-01 -1.936425886399756047e-01 7.797484278555280035e-01 -5.961375458254608573e-01 -1.115110805955487727e+00 -9.283541726621147294e-01 -3.433714686605376376e-01 -3.712044686011150008e-01 -1.760823385651652528e-01 -2.326938246171801339e-01 -3.251600323431819151e-01 -2.936768046846237601e-01 -4.680129762226651335e-01 4.119132532863192253e-01 5.807920242772576236e-01 -7.968149334681533524e-01 5.263357200800381497e-01 -4.599740978752253073e-01 -1.147725772021489954e+00 -8.570895924579422509e-01 -1.980864236444811882e-02 -7.685453739706777920e-01 3.156919457313469568e-01 8.576915716742178342e-02 -7.365101356512158137e-01 1.276732635596908194e+00 -1.197706120690485099e+00 1.054636577424388766e-01 -1.080539189063339789e+00 3.696874982089684014e-01 -9.161802675376268246e-01 -8.562901634813163687e-01 1.408354796280632260e-01 -9.506685389256473995e-01 -9.574422304176339882e-01 -5.888978763941564720e-01 -3.496259689314166336e-02 1.164034518045858890e-01 -6.665202254922162339e-01 -2.748816785986843980e-01 8.745742914735445961e-01 -5.578785070181481176e-01 6.817562203890760175e-01 -2.579039443671722331e-01 -6.619403382857895757e-01 -6.952666790992612089e-02 -5.742652788453486146e-01 1.172795429962678743e-01 -4.516851459736962449e-01 -1.520673945555978124e-01 -2.492900650974584353e-01 -9.745964410036800363e-01 -4.653071390821515996e-01 -5.079220492009286492e-01 -1.335558918308349940e-01 -1.705207582775382091e-01 -5.498790954646070039e-01 -1.255964330462554290e+00 3.650385201242897226e-01 -5.109057547680435213e-02 -4.672125336121904504e-01 2.150252210091611049e-01 -5.993366435348995713e-01 -3.610050729680752690e-01 -3.106070717080213206e-01 4.251662472984233526e-02 -3.177655198414649496e-01 2.600088668429557104e-01 -6.584812339739911646e-01 -3.555792870492688884e-01 -2.625878409634592736e-01 -7.944582418500065746e-01 5.704815681362410684e-01 -6.657662606931353810e-01 -6.629330465387026639e-01 -1.144274169050842005e+00 -3.416223480077774655e-01 -6.358459314282807195e-01 -3.587087142428446174e-01 -5.669512250641668416e-01 -7.555504732603329776e-01 -2.937941436287037078e-01 -8.474077654866383202e-01 -8.549995316377654309e-01 9.189267125777405010e-01 -4.875657349618066627e-01 -7.138317754332416110e-01 1.311440466341164679e-01 3.191898029586494046e-01 -3.214345889743812634e-01 -8.398280921957144152e-01 8.300226330629842941e-01 -1.761076881498338520e-01 -6.187319060596484926e-02 -1.205267963228003447e+00 2.068113999393567104e-01 -2.563841250224426216e-01 -1.501444711872934601e+00 -2.333556015504443804e-01 -4.826594548100713866e-01 -8.735408780530071193e-02 -1.017041632816268582e+00 1.013383794251478398e-01 -1.001491364714490219e-02 -6.778753139823318064e-02 2.645751420265432183e-02 -9.101446366372445418e-01 -2.474058045290606356e-01 -8.469935551613172464e-01 1.053516336459950908e-01 9.648774174949967253e-02 1.718228578404995543e-01 -4.884411980709947865e-01 -9.441443566593411552e-01 -4.829166641440184315e-02 -2.374133803037418722e-01 -2.586944712381978317e-01 -5.371798633251612110e-01 6.235826378151745342e-01 4.177192378896021352e-01 -6.276222258381951580e-01 -9.144444964866675907e-01 2.262427099041799672e-01 -4.232093929356878781e-01 2.743016478685691428e-01 7.049427833184564174e-02 -6.669523201010092370e-03 -5.901420204400694564e-02 2.274334112313843859e-01 -4.448659437540817413e-02 -5.335206702891889252e-01 -9.833360384315878999e-01 -4.516180169655679699e-01 -1.507172680321289482e+00 -1.126101938891137078e+00 4.365456517523318841e-02 9.089618968636352658e-01 -1.533899494627202487e-01 9.420784566536687110e-02 1.254487104402953301e+00 -8.493479877724160465e-01 -5.268839368601383778e-03 -1.976898028117019812e-01 1.061265116724105090e-01 1.082377043674380424e-01 1.625559808197101774e-01 2.513820484522423238e-01 3.688817360236902598e-02 8.049784325678661645e-01 -8.870615700125336067e-01 2.394733979104341492e-01 7.741980316646110971e-01 1.879085284851250356e-02 -3.794701777138945742e-01 -1.002201265960011689e+00 3.171605646800787492e-02 -8.142259725178563334e-01 -4.967780708530645378e-02 -4.072412490407271712e-01 2.852054133805810299e-01 -6.894353428184446519e-01 -9.828250867686219028e-01 -6.427445908704852717e-02 3.580581188809968118e-01
